<?xml version="1.0"?>
<opencv_storage>
<cascade>
  <stageType>BOOST</stageType>
  <featureType>LBP</featureType>
  <height>48</height>
  <width>48</width>
  <stageParams>
    <boostType>GAB</boostType>
    <minHitRate>9.9500000476837158e-01</minHitRate>
    <maxFalseAlarm>5.0000000000000000e-01</maxFalseAlarm>
    <weightTrimRate>9.4999999999999996e-01</weightTrimRate>
    <maxDepth>1</maxDepth>
    <maxWeakCount>100</maxWeakCount></stageParams>
  <featureParams>
    <maxCatCount>256</maxCatCount>
    <featSize>1</featSize></featureParams>
  <stageNum>2</stageNum>
  <stages>
    <!-- stage 0 -->
    <_>
      <maxWeakCount>1</maxWeakCount>
      <stageThreshold>9.8715478181838989e-01</stageThreshold>
      <weakClassifiers>
        <_>
          <internalNodes>
            0 -1 1 -134479873 -2105349 -1659134497 -27745 -72631361
            -3112759 -72631297 -1048577</internalNodes>
          <leafValues>
            -9.9738335609436035e-01 9.8715478181838989e-01</leafValues></_></weakClassifiers></_>
    <!-- stage 1 -->
    <_>
      <maxWeakCount>1</maxWeakCount>
      <stageThreshold>9.7444087266921997e-01</stageThreshold>
      <weakClassifiers>
        <_>
          <internalNodes>
            0 -1 0 -35651585 -12013 -855515169 -2097829 -11535361
            -184972097 -69468161 -1</internalNodes>
          <leafValues>
            -9.9562364816665649e-01 9.7444087266921997e-01</leafValues></_></weakClassifiers></_></stages>
  <features>
    <_>
      <rect>
        11 11 9 6</rect></_>
    <_>
      <rect>
        11 21 9 7</rect></_></features></cascade>
</opencv_storage>
