<?xml version="1.0"?>
<opencv_storage>
<cascade>
  <stageType>BOOST</stageType>
  <featureType>LBP</featureType>
  <height>48</height>
  <width>48</width>
  <stageParams>
    <boostType>GAB</boostType>
    <minHitRate>9.9500000476837158e-01</minHitRate>
    <maxFalseAlarm>5.0000000000000000e-01</maxFalseAlarm>
    <weightTrimRate>9.4999999999999996e-01</weightTrimRate>
    <maxDepth>1</maxDepth>
    <maxWeakCount>100</maxWeakCount></stageParams>
  <featureParams>
    <maxCatCount>256</maxCatCount>
    <featSize>1</featSize></featureParams>
  <stageNum>11</stageNum>
  <stages>
    <!-- stage 0 -->
    <_>
      <maxWeakCount>6</maxWeakCount>
      <stageThreshold>-1.3018548488616943e+00</stageThreshold>
      <weakClassifiers>
        <_>
          <internalNodes>
            0 -1 22 -581437441 1469382916 -754740737 1603097760
            -125120882 -578125184 -1685345138 -5510518</internalNodes>
          <leafValues>
            -7.6470589637756348e-01 6.6148215532302856e-01</leafValues></_>
        <_>
          <internalNodes>
            0 -1 5 -33555746 -16471 -1 -1 -335557398 -1426842528
            -35127329 -813717553</internalNodes>
          <leafValues>
            -5.6481683254241943e-01 6.6425776481628418e-01</leafValues></_>
        <_>
          <internalNodes>
            0 -1 2 -143658702 2124591998 -72489998 -8427666 -8914452
            -146276874 2110650351 -133121</internalNodes>
          <leafValues>
            -5.3022515773773193e-01 6.0063958168029785e-01</leafValues></_>
        <_>
          <internalNodes>
            0 -1 27 -849357585 1429831800 1300791773 1360648385
            -846484561 -1173651288 -1996418161 1419374683</internalNodes>
          <leafValues>
            -5.9772890806198120e-01 5.6619209051132202e-01</leafValues></_>
        <_>
          <internalNodes>
            0 -1 41 -556122096 -543600549 1375744283 -2957118 823470325
            2103496875 -243070470 -79732737</internalNodes>
          <leafValues>
            -6.2619030475616455e-01 5.0231277942657471e-01</leafValues></_>
        <_>
          <internalNodes>
            0 -1 54 -236460382 -743248918 -620757533 1576386437
            -1368642902 -552927233 -35329 -570691585</internalNodes>
          <leafValues>
            -4.9683654308319092e-01 6.5094757080078125e-01</leafValues></_></weakClassifiers></_>
    <!-- stage 1 -->
    <_>
      <maxWeakCount>6</maxWeakCount>
      <stageThreshold>-1.3043402433395386e+00</stageThreshold>
      <weakClassifiers>
        <_>
          <internalNodes>
            0 -1 38 -33555473 -10490033 -1 -528625 -1052689 -271597812
            -8465 -7340273</internalNodes>
          <leafValues>
            -6.7730498313903809e-01 7.5838923454284668e-01</leafValues></_>
        <_>
          <internalNodes>
            0 -1 10 -275776513 -237250081 -917650371 -538980094
            191878138 -1948530240 160352665 1342167283</internalNodes>
          <leafValues>
            -5.3489744663238525e-01 5.9915965795516968e-01</leafValues></_>
        <_>
          <internalNodes>
            0 -1 20 -67655130 -14974194 -299360499 -711085825 673971630
            -51381886 -2144604849 1425924095</internalNodes>
          <leafValues>
            -6.3697916269302368e-01 4.6153438091278076e-01</leafValues></_>
        <_>
          <internalNodes>
            0 -1 34 -1157820261 -638109901 -67225603 -16393 -1644283649
            -1090568849 -168301313 -859185937</internalNodes>
          <leafValues>
            -5.0479501485824585e-01 5.8188265562057495e-01</leafValues></_>
        <_>
          <internalNodes>
            0 -1 62 -2020410605 -1095304226 -1471063723 -543688557
            143567007 801829323 416138149 -189272709</internalNodes>
          <leafValues>
            -5.8842486143112183e-01 5.1729208230972290e-01</leafValues></_>
        <_>
          <internalNodes>
            0 -1 31 1799297274 536101124 -1390914313 2078741983
            -774006536 -73367258 -339484294 -2228602</internalNodes>
          <leafValues>
            -5.6024312973022461e-01 5.5138349533081055e-01</leafValues></_></weakClassifiers></_>
    <!-- stage 2 -->
    <_>
      <maxWeakCount>6</maxWeakCount>
      <stageThreshold>-1.3082820177078247e+00</stageThreshold>
      <weakClassifiers>
        <_>
          <internalNodes>
            0 -1 16 -33557505 -100664873 -1205966182 -155349314
            -129656833 -555028073 -83232098 -1025</internalNodes>
          <leafValues>
            -6.8181818723678589e-01 6.2374246120452881e-01</leafValues></_>
        <_>
          <internalNodes>
            0 -1 57 -388043060 -37248500 -733960261 -1212424249
            -660934952 -24141636 -1435852321 -83890177</internalNodes>
          <leafValues>
            -5.7136559486389160e-01 5.6507003307342529e-01</leafValues></_>
        <_>
          <internalNodes>
            0 -1 0 -292882774 -1083199761 -134222081 -72356421
            2002759611 -1572865 -109234529 -35329</internalNodes>
          <leafValues>
            -4.6810367703437805e-01 5.7727843523025513e-01</leafValues></_>
        <_>
          <internalNodes>
            0 -1 43 -235944121 1290637183 582870758 1316470655
            1308083398 234872791 -545403154 -926941441</internalNodes>
          <leafValues>
            -4.5548444986343384e-01 6.1061048507690430e-01</leafValues></_>
        <_>
          <internalNodes>
            0 -1 46 -517868414 -1467998055 1563023127 1439437259
            1258482056 -1437564726 -884372565 -1423189745</internalNodes>
          <leafValues>
            -6.1544913053512573e-01 4.8010045289993286e-01</leafValues></_>
        <_>
          <internalNodes>
            0 -1 45 810553275 -675276139 1161902047 -216577769 964917437
            816195731 236152750 622027523</internalNodes>
          <leafValues>
            -6.6538816690444946e-01 4.3855690956115723e-01</leafValues></_></weakClassifiers></_>
    <!-- stage 3 -->
    <_>
      <maxWeakCount>6</maxWeakCount>
      <stageThreshold>-1.4033752679824829e+00</stageThreshold>
      <weakClassifiers>
        <_>
          <internalNodes>
            0 -1 28 -1 -2097329 -513 -1048625 -2097169 -288559474
            -147489 -7344245</internalNodes>
          <leafValues>
            -6.3778162002563477e-01 7.3871731758117676e-01</leafValues></_>
        <_>
          <internalNodes>
            0 -1 12 -439371785 1340695531 -1048390346 -540593961
            1268251631 194988746 1805170421 -2023756821</internalNodes>
          <leafValues>
            -6.2298315763473511e-01 4.6703764796257019e-01</leafValues></_>
        <_>
          <internalNodes>
            0 -1 21 -939526421 -44056862 1360251900 995989088 1221525503
            -89177981 -73442611 -171575980</internalNodes>
          <leafValues>
            -5.2345436811447144e-01 5.1744073629379272e-01</leafValues></_>
        <_>
          <internalNodes>
            0 -1 6 -626013777 -50216661 -1072204041 -178334459
            -503673909 80137 -83236114 -254292709</internalNodes>
          <leafValues>
            -5.6762349605560303e-01 4.9017044901847839e-01</leafValues></_>
        <_>
          <internalNodes>
            0 -1 52 -86570412 -1025894039 -2146060065 -1222903529
            -1461772150 -351436568 -1460893441 -1440750930</internalNodes>
          <leafValues>
            -5.4090249538421631e-01 5.1450240612030029e-01</leafValues></_>
        <_>
          <internalNodes>
            0 -1 59 1564795784 1969094131 -783273966 501203935
            -108336672 -794088568 -502552272 -1058086</internalNodes>
          <leafValues>
            -6.2382894754409790e-01 4.6032199263572693e-01</leafValues></_></weakClassifiers></_>
    <!-- stage 4 -->
    <_>
      <maxWeakCount>6</maxWeakCount>
      <stageThreshold>-1.3699201345443726e+00</stageThreshold>
      <weakClassifiers>
        <_>
          <internalNodes>
            0 -1 48 -791553 -144711171 -2096920069 -2897329 -370938141
            -4538193 1074000883 -9176109</internalNodes>
          <leafValues>
            -6.8128240108489990e-01 5.7823127508163452e-01</leafValues></_>
        <_>
          <internalNodes>
            0 -1 14 -34078726 -229487870 -2129828681 -180608624
            1435695871 -57574316 683500255 -16783877</internalNodes>
          <leafValues>
            -5.8031374216079712e-01 5.3314936161041260e-01</leafValues></_>
        <_>
          <internalNodes>
            0 -1 25 296466617 -1117800549 1006760185 -3171885
            -1984304194 -1212512055 -2138964099 -1375863363</internalNodes>
          <leafValues>
            -5.5850577354431152e-01 4.8781120777130127e-01</leafValues></_>
        <_>
          <internalNodes>
            0 -1 9 -71303201 -1894853190 -875504902 -1110515206
            1190261751 1359217426 295714896 -707300409</internalNodes>
          <leafValues>
            -5.4342120885848999e-01 4.6579790115356445e-01</leafValues></_>
        <_>
          <internalNodes>
            0 -1 55 1998999647 2008380003 9424095 1674199567 -800939346
            -10812085 -2137366033 -21303049</internalNodes>
          <leafValues>
            -4.5907256007194519e-01 5.8021879196166992e-01</leafValues></_>
        <_>
          <internalNodes>
            0 -1 49 -1648509273 -1148924721 -582941573 219145095
            1483315429 -38865912 25248153 230654415</internalNodes>
          <leafValues>
            -6.0108494758605957e-01 4.4345650076866150e-01</leafValues></_></weakClassifiers></_>
    <!-- stage 5 -->
    <_>
      <maxWeakCount>6</maxWeakCount>
      <stageThreshold>-1.3508417606353760e+00</stageThreshold>
      <weakClassifiers>
        <_>
          <internalNodes>
            0 -1 40 -690488337 -134229009 -1661608977 -135005361
            -1013194833 -1345534962 -89131537 -1048753</internalNodes>
          <leafValues>
            -6.7656767368316650e-01 5.6851309537887573e-01</leafValues></_>
        <_>
          <internalNodes>
            0 -1 13 -3934726 343946594 -199552394 -1149658882 2077221375
            -129969790 1707812351 -4195345</internalNodes>
          <leafValues>
            -5.7680219411849976e-01 4.6756199002265930e-01</leafValues></_>
        <_>
          <internalNodes>
            0 -1 53 -189794642 1267414879 -1608788916 -1552890938
            -1599603768 -259210805 -189269282 -201591809</internalNodes>
          <leafValues>
            -5.7185137271881104e-01 4.1933971643447876e-01</leafValues></_>
        <_>
          <internalNodes>
            0 -1 60 -58721421 1380712237 1987641336 1895432030
            -723653800 -62914625 -299959302 -16777733</internalNodes>
          <leafValues>
            -4.8811697959899902e-01 5.3741276264190674e-01</leafValues></_>
        <_>
          <internalNodes>
            0 -1 18 -252322571 -118201105 -16974088 -34234370 -302055553
            -1034 -329714 -53478578</internalNodes>
          <leafValues>
            -4.3844038248062134e-01 5.9753262996673584e-01</leafValues></_>
        <_>
          <internalNodes>
            0 -1 4 -203434928 -1085628464 -788238120 -135601280
            -125070418 -1123286361 -5542166 1330636767</internalNodes>
          <leafValues>
            -6.1578398942947388e-01 4.6625977754592896e-01</leafValues></_></weakClassifiers></_>
    <!-- stage 6 -->
    <_>
      <maxWeakCount>5</maxWeakCount>
      <stageThreshold>-8.0371171236038208e-01</stageThreshold>
      <weakClassifiers>
        <_>
          <internalNodes>
            0 -1 30 -208142337 -8929425 -1 -33 -139265 -3281202 -17
            -70255666</internalNodes>
          <leafValues>
            -5.9829062223434448e-01 6.7901235818862915e-01</leafValues></_>
        <_>
          <internalNodes>
            0 -1 19 -543424577 -604282104 -552877555 -2267572 193822687
            -1113881667 185912303 -705830947</internalNodes>
          <leafValues>
            -4.8359620571136475e-01 5.2667593955993652e-01</leafValues></_>
        <_>
          <internalNodes>
            0 -1 42 -151454312 1538581966 -9540477 -48989258 2043137272
            1411046667 -308721252 -101690364</internalNodes>
          <leafValues>
            -5.9839648008346558e-01 4.0431401133537292e-01</leafValues></_>
        <_>
          <internalNodes>
            0 -1 47 -335658820 -539559098 -1193744417 -2102105481
            -1463956262 -240215690 78439359 -1548770361</internalNodes>
          <leafValues>
            -5.7762944698333740e-01 4.2029997706413269e-01</leafValues></_>
        <_>
          <internalNodes>
            0 -1 63 -228591265 1616007455 -266022562 134664589
            -670441152 1880653920 -1436620050 -768157101</internalNodes>
          <leafValues>
            -5.4643893241882324e-01 4.7604468464851379e-01</leafValues></_></weakClassifiers></_>
    <!-- stage 7 -->
    <_>
      <maxWeakCount>5</maxWeakCount>
      <stageThreshold>-1.0104415416717529e+00</stageThreshold>
      <weakClassifiers>
        <_>
          <internalNodes>
            0 -1 33 -237159425 2134574359 -212345379 -2132033
            -1452561153 -1620176153 -117313537 -4195333</internalNodes>
          <leafValues>
            -6.3512903451919556e-01 5.8767271041870117e-01</leafValues></_>
        <_>
          <internalNodes>
            0 -1 44 -87363704 1440801731 -1686653026 -237568034
            -956089784 -288839448 -33561666 -1025</internalNodes>
          <leafValues>
            -6.2869286537170410e-01 4.0420830249786377e-01</leafValues></_>
        <_>
          <internalNodes>
            0 -1 24 -1434720329 -145660972 -1874177539 -1281905920
            423608255 -1085994449 483642319 -772159148</internalNodes>
          <leafValues>
            -5.3619325160980225e-01 4.4366660714149475e-01</leafValues></_>
        <_>
          <internalNodes>
            0 -1 32 -641073153 2028785755 21070083 765661963 1779753967
            2140721237 34161166 184937799</internalNodes>
          <leafValues>
            -5.7454478740692139e-01 4.2809081077575684e-01</leafValues></_>
        <_>
          <internalNodes>
            0 -1 58 1484677904 1546047632 -263322497 -1831199396
            1343967746 -38886910 -7345362 -623968692</internalNodes>
          <leafValues>
            -6.1837708950042725e-01 4.1354537010192871e-01</leafValues></_></weakClassifiers></_>
    <!-- stage 8 -->
    <_>
      <maxWeakCount>6</maxWeakCount>
      <stageThreshold>-1.0539889335632324e+00</stageThreshold>
      <weakClassifiers>
        <_>
          <internalNodes>
            0 -1 35 -682623025 -3145745 -544211313 -70254881 -3670065
            -4113 -808452149 -2049</internalNodes>
          <leafValues>
            -5.9636205434799194e-01 6.2663495540618896e-01</leafValues></_>
        <_>
          <internalNodes>
            0 -1 50 -185604625 -336073054 -1074013185 -1292136909
            -589857 -276865165 -1077882897 -135029065</internalNodes>
          <leafValues>
            -4.5649433135986328e-01 5.4085469245910645e-01</leafValues></_>
        <_>
          <internalNodes>
            0 -1 26 -1280640237 -70038537 -69873413 -1256675579
            529971551 -52193654 1499586489 -37357435</internalNodes>
          <leafValues>
            -5.0079792737960815e-01 4.7076615691184998e-01</leafValues></_>
        <_>
          <internalNodes>
            0 -1 61 1935652770 -240082205 -181800077 1573119835
            -686678654 -844965571 -1002177570 -704645185</internalNodes>
          <leafValues>
            -5.2729034423828125e-01 4.7344124317169189e-01</leafValues></_>
        <_>
          <internalNodes>
            0 -1 17 -615318858 -32344097 -677325550 -1277534349
            458846047 -1837052965 1860796382 -344919745</internalNodes>
          <leafValues>
            -5.0595861673355103e-01 4.6610140800476074e-01</leafValues></_>
        <_>
          <internalNodes>
            0 -1 3 -209275342 -1276941709 2147481591 -134762755
            -142747725 -201326593 -293786369 -8825345</internalNodes>
          <leafValues>
            -4.1070982813835144e-01 5.6353640556335449e-01</leafValues></_></weakClassifiers></_>
    <!-- stage 9 -->
    <_>
      <maxWeakCount>6</maxWeakCount>
      <stageThreshold>-1.1409684419631958e+00</stageThreshold>
      <weakClassifiers>
        <_>
          <internalNodes>
            0 -1 37 -3276833 -773980707 1057357823 -572684323 -8323089
            -1 -11665409 -3145729</internalNodes>
          <leafValues>
            -5.9430295228958130e-01 6.3265305757522583e-01</leafValues></_>
        <_>
          <internalNodes>
            0 -1 23 -386009089 -246088707 1276745214 -573342886
            -652673545 -80426097 -614530390 -17846614</internalNodes>
          <leafValues>
            -5.1401811838150024e-01 5.0475984811782837e-01</leafValues></_>
        <_>
          <internalNodes>
            0 -1 36 -222576389 2013110263 1079345109 -581894401
            -1174685957 -1291851777 -1268777009 -287834625</internalNodes>
          <leafValues>
            -3.9484232664108276e-01 5.4736614227294922e-01</leafValues></_>
        <_>
          <internalNodes>
            0 -1 64 -416415837 261534203 -912466027 1605222679
            -396231703 -911255053 1398825941 -705168469</internalNodes>
          <leafValues>
            -4.6379873156547546e-01 4.8973804712295532e-01</leafValues></_>
        <_>
          <internalNodes>
            0 -1 11 -338698241 1441415464 -920988942 -1276859502
            1372152231 1308806437 1191252821 1710323027</internalNodes>
          <leafValues>
            -6.4190208911895752e-01 3.8686531782150269e-01</leafValues></_>
        <_>
          <internalNodes>
            0 -1 8 -27008350 193159554 6292106 -794466099 1432477965
            1075859456 -526687833 -186122673</internalNodes>
          <leafValues>
            -4.2784944176673889e-01 5.4357248544692993e-01</leafValues></_></weakClassifiers></_>
    <!-- stage 10 -->
    <_>
      <maxWeakCount>7</maxWeakCount>
      <stageThreshold>-1.0381644964218140e+00</stageThreshold>
      <weakClassifiers>
        <_>
          <internalNodes>
            0 -1 29 -749346563 -606224913 -847031553 -178433573
            2001055998 -615933304 -1165776385 -582095923</internalNodes>
          <leafValues>
            -6.6467064619064331e-01 4.2059338092803955e-01</leafValues></_>
        <_>
          <internalNodes>
            0 -1 15 -33686145 -80094761 -134254982 -134288770 1912067419
            -8519699 -10501 -1537</internalNodes>
          <leafValues>
            -4.3093326687812805e-01 5.9546935558319092e-01</leafValues></_>
        <_>
          <internalNodes>
            0 -1 56 -75562465 -536940977 -277881089 -1385378195
            -469849860 -134250537 -268505122 -352659938</internalNodes>
          <leafValues>
            -4.4827371835708618e-01 4.9191260337829590e-01</leafValues></_>
        <_>
          <internalNodes>
            0 -1 51 -8916032 -255671693 -804870694 38936803 -354687334
            -71856966 944207922 2117335986</internalNodes>
          <leafValues>
            -5.8600062131881714e-01 3.7436634302139282e-01</leafValues></_>
        <_>
          <internalNodes>
            0 -1 39 -370589176 153100625 -921522158 1935221258
            1658244334 103170250 251644671 -1371539465</internalNodes>
          <leafValues>
            -6.4630532264709473e-01 3.7450239062309265e-01</leafValues></_>
        <_>
          <internalNodes>
            0 -1 1 -541241094 -167878178 -11165482 -1155591753
            -1182674003 -1324633942 1309212255 1608983167</internalNodes>
          <leafValues>
            -5.7424300909042358e-01 3.9573901891708374e-01</leafValues></_>
        <_>
          <internalNodes>
            0 -1 7 -58218772 -153459233 -1300119074 691130719 433447856
            -1048025086 1611908986 451149679</internalNodes>
          <leafValues>
            -5.8458745479583740e-01 4.1170880198478699e-01</leafValues></_></weakClassifiers></_></stages>
  <features>
    <_>
      <rect>
        4 0 7 2</rect></_>
    <_>
      <rect>
        5 0 7 3</rect></_>
    <_>
      <rect>
        7 0 5 3</rect></_>
    <_>
      <rect>
        7 0 6 2</rect></_>
    <_>
      <rect>
        9 0 3 4</rect></_>
    <_>
      <rect>
        9 2 10 7</rect></_>
    <_>
      <rect>
        9 4 10 3</rect></_>
    <_>
      <rect>
        9 39 3 3</rect></_>
    <_>
      <rect>
        10 20 1 3</rect></_>
    <_>
      <rect>
        11 4 2 2</rect></_>
    <_>
      <rect>
        12 3 4 4</rect></_>
    <_>
      <rect>
        12 4 2 2</rect></_>
    <_>
      <rect>
        13 8 4 2</rect></_>
    <_>
      <rect>
        13 11 3 3</rect></_>
    <_>
      <rect>
        13 12 3 3</rect></_>
    <_>
      <rect>
        14 8 6 8</rect></_>
    <_>
      <rect>
        14 8 7 8</rect></_>
    <_>
      <rect>
        15 32 4 4</rect></_>
    <_>
      <rect>
        16 8 6 9</rect></_>
    <_>
      <rect>
        16 12 2 3</rect></_>
    <_>
      <rect>
        16 13 3 3</rect></_>
    <_>
      <rect>
        16 14 2 2</rect></_>
    <_>
      <rect>
        17 12 5 4</rect></_>
    <_>
      <rect>
        17 12 5 8</rect></_>
    <_>
      <rect>
        17 15 1 2</rect></_>
    <_>
      <rect>
        18 2 3 4</rect></_>
    <_>
      <rect>
        18 4 2 4</rect></_>
    <_>
      <rect>
        18 8 3 4</rect></_>
    <_>
      <rect>
        18 11 4 4</rect></_>
    <_>
      <rect>
        18 12 4 2</rect></_>
    <_>
      <rect>
        18 12 4 3</rect></_>
    <_>
      <rect>
        18 12 4 5</rect></_>
    <_>
      <rect>
        18 19 4 7</rect></_>
    <_>
      <rect>
        19 0 4 5</rect></_>
    <_>
      <rect>
        19 3 4 4</rect></_>
    <_>
      <rect>
        20 5 3 6</rect></_>
    <_>
      <rect>
        20 6 3 3</rect></_>
    <_>
      <rect>
        20 7 3 4</rect></_>
    <_>
      <rect>
        20 11 3 4</rect></_>
    <_>
      <rect>
        20 12 2 4</rect></_>
    <_>
      <rect>
        20 13 3 3</rect></_>
    <_>
      <rect>
        20 31 2 4</rect></_>
    <_>
      <rect>
        20 36 2 2</rect></_>
    <_>
      <rect>
        21 14 1 3</rect></_>
    <_>
      <rect>
        21 19 2 2</rect></_>
    <_>
      <rect>
        21 28 2 3</rect></_>
    <_>
      <rect>
        21 39 7 3</rect></_>
    <_>
      <rect>
        23 8 2 2</rect></_>
    <_>
      <rect>
        23 9 3 5</rect></_>
    <_>
      <rect>
        23 29 5 6</rect></_>
    <_>
      <rect>
        24 10 2 4</rect></_>
    <_>
      <rect>
        24 29 3 4</rect></_>
    <_>
      <rect>
        25 9 2 2</rect></_>
    <_>
      <rect>
        25 12 3 2</rect></_>
    <_>
      <rect>
        25 39 6 3</rect></_>
    <_>
      <rect>
        26 4 2 4</rect></_>
    <_>
      <rect>
        26 7 2 3</rect></_>
    <_>
      <rect>
        26 9 2 3</rect></_>
    <_>
      <rect>
        26 27 3 3</rect></_>
    <_>
      <rect>
        28 2 5 3</rect></_>
    <_>
      <rect>
        30 3 3 2</rect></_>
    <_>
      <rect>
        30 38 4 3</rect></_>
    <_>
      <rect>
        31 38 2 3</rect></_>
    <_>
      <rect>
        32 2 2 3</rect></_>
    <_>
      <rect>
        32 39 2 2</rect></_></features></cascade>
</opencv_storage>
